
\data\
ngram 1=16
ngram 2=150
ngram 3=759

\1-grams:
-0.722866	+	-2.039811
-1.725539	N	-1.521138
-0.7778991	a	0
-1.175386	e	-1.594029
-1.985664	f	-1.269513
-1.363345	h	-1.877372
-1.037426	i	0
-1.236084	k	-2.003462
-1.518413	m	-1.724276
-1.468186	n	-1.773787
-1.208326	o	-1.59106
-1.42317	p	-1.818226
-1.195481	r	-2.043755
-1.281841	t	-1.958086
-1.211598	u	-1.619251
-1.870596	w	-1.380211

\2-grams:
-99	+ +
-1.497548	+ N	-1.0569
-1.321024	+ a	-0.6659548
-1.873447	+ e	-0.2227748
-1.382404	+ f	-0.4181823
-1.023753	+ h	-1.505138
-1.733369	+ i	-0.3217466
-0.8678483	+ k	-1.657025
-0.9767159	+ m	-1.551452
-1.320975	+ n	-1.220109
-1.672722	+ o	-0.3343647
-0.8987453	+ p	-1.627359
-0.995908	+ r	-1.531479
-0.8288968	+ t	-1.69556
-1.685427	+ u	-0.3449329
-1.351378	+ w	-0.3539381
-99	N +
-0.1676688	N a	-0.6161489
-1.493065	N e	-0.1991137
-0.9539066	N i	-0.3503254
-0.9343373	N o	-0.1929221
-1.356359	N u	-0.1160005
-0.396723	a +
-1.515254	a N	-1.079183
-2.408221	a a	-0.2054683
-1.581103	a e	-0.4562976
-2.249691	a f	-0.2206905
-1.244198	a h	-1.240563
-1.266975	a i	-0.1526936
-1.132572	a k	-1.346298
-1.677582	a m	-0.4918633
-1.325695	a n	-1.164366
-1.64328	a o	-0.6467606
-1.408821	a p	-1.08635
-0.985518	a r	-1.488503
-1.281791	a t	-1.204116
-1.362445	a u	-0.4060345
-1.726851	a w	-0.5052876
-0.3883878	e +
-1.442099	e N	-0.1283261
-1.162645	e a	-1.037419
-2.151541	e f	-0.4771212
-1.230415	e h	-0.9777239
-1.332743	e i	-0.3326885
-1.137952	e k	-0.9731234
-1.610108	e m	-0.5797842
-1.195964	e n	-0.5088837
-1.870926	e o	-0.333546
-1.637659	e p	-0.2000493
-0.9780295	e r	-1.120566
-1.296134	e t	-0.4607242
-2.078018	e u	-0.69897
-1.977579	e w	-0.6020598
-99	f +
-0.3469554	f a	-0.2787081
-0.682164	f e	-0.18634
-0.5626464	f i	-0.287591
-1.851381	f o
-1.605404	f u
-99	h +
-0.5684493	h a	0.01432324
-0.874481	h e	-0.3046588
-0.5743538	h i	-0.29273
-0.8335417	h o	-0.08646229
-0.7547809	h u	-0.8808129
-0.3146993	i +
-1.620216	i N	-0.865301
-1.050469	i a	-0.7189151
-2.200925	i e	-0.2109192
-2.192694	i f	-0.544068
-1.255556	i h	-0.6707186
-2.365731	i i	-0.4771212
-1.253269	i k	-0.5633819
-1.775946	i m	-0.6283888
-1.177082	i n	-1.064464
-1.675593	i o	-0.3410421
-1.660187	i p	-0.2637303
-1.189625	i r	-1.138304
-1.22604	i t	-1.017031
-1.906538	i u	-0.7403626
-1.941275	i w	-0.7403628
-99	k +
-0.4673219	k a	-0.1907315
-0.7764285	k e	-0.5529662
-0.7226149	k i	-0.1771429
-0.7371842	k o	-0.0978385
-0.9442216	k u	-0.8260753
-99	m +
-0.3556773	m a	-0.4206737
-0.941318	m e	-0.3290797
-0.8271029	m i	-0.278227
-0.7968081	m o	-0.490348
-0.9007082	m u	-0.4538264
-99	n +
-0.3799172	n a	-0.9906019
-0.7143452	n e	-0.7407489
-0.7785136	n i	-0.3679824
-0.9373422	n o	-0.3469584
-1.005783	n u	-0.5756701
-0.4592396	o +
-1.614538	o N	-0.7269982
-1.227524	o a	-0.3050578
-1.837654	o e	-0.3085245
-2.678501	o f
-1.118032	o h	-0.9637978
-1.370128	o i	-0.4759668
-1.039851	o k	-1.033413
-1.548986	o m	-0.6766936
-1.253229	o n	-0.8451109
-1.518962	o p	-0.3443633
-0.9053704	o r	-1.158362
-1.249607	o t	-0.8450987
-1.34169	o u	-0.43267
-99	p +
-0.4725236	p a	-0.5676695
-0.8704602	p e	-0.2841277
-0.831824	p i	-0.5236635
-0.7986155	p o	-0.757948
-0.6701963	p u	-0.8670911
-99	r +
-0.512701	r a	-1.116307
-0.6659614	r e	-0.3716317
-0.6878873	r i	-0.2315609
-0.8325839	r o	-0.4202753
-0.9211647	r u	-0.485889
-99	t +
-0.4479866	t a	-0.4071454
-0.938273	t e	-0.1450161
-0.6258142	t i	-0.40497
-0.8487808	t o	-0.06123237
-0.842095	t u	-0.1236477
-0.352153	u +
-1.645254	u N	-1.113943
-0.9915106	u a	-0.6142676
-1.837329	u e	-0.08353438
-2.403929	u f
-1.514055	u h	-0.4272532
-1.267924	u i	-0.5018296
-1.167883	u k	-0.599881
-1.545845	u m	-0.6766938
-1.310897	u n	-0.8750619
-1.543128	u p	-0.2432186
-0.9863388	u r	-0.7145128
-1.323613	u t	-0.4063666
-99	w +
-0.2809878	w a	-0.7900503
-0.4955985	w e	-0.4441786
-1.020045	w i	-0.1994013
-1.55942	w o
-1.962851	w u

\3-grams:
-0.2321465	+ N a
-1.136713	+ N e
-1.097293	+ N i
-0.7313231	+ N o
-1.130553	+ N u
-0.1163517	a N a
-1.03339	a N i
-1.031392	a N o
-1.343567	a N u
-0.1501884	e N a
-0.8640134	e N i
-0.165199	i N a
-0.7055748	i N i
-0.9715458	i N o
-0.2024224	o N a
-0.6812077	o N i
-0.8332431	o N o
-0.01083363	u N a
-1.42022	+ a N
-1.469869	+ a f
-0.9653911	+ a h
-1.125819	+ a i
-1.050267	+ a k
-1.324046	+ a m
-1.072066	+ a n
-1.589632	+ a o
-1.212006	+ a p
-0.7961527	+ a r
-1.127557	+ a t
-1.206908	+ a u
-1.327461	+ a w
-0.1859379	N a +
-1.4533	N a N
-1.728902	N a e
-1.268393	N a h
-1.531255	N a i
-1.404618	N a k
-1.684017	N a n
-1.127717	N a r
-1.533853	N a t
-1.69187	N a u
-0.3552106	a a r
-0.0245424	e a +
-0.6166092	f a +
-1.197113	f a N
-1.203814	f a e
-0.9723088	f a i
-1.035472	f a k
-0.9786645	f a n
-1.367708	f a o
-1.004887	f a r
-1.05896	f a t
-0.4514958	h a +
-1.415321	h a N
-1.332584	h a e
-1.117276	h a h
-1.61557	h a i
-1.059904	h a k
-1.543956	h a m
-1.237827	h a n
-1.540576	h a o
-1.245892	h a p
-1.084415	h a r
-1.619793	h a t
-1.180734	h a u
-1.706267	h a w
-0.08976991	i a +
-1.480128	i a k
-1.381243	i a o
-1.445649	i a r
-0.4632187	k a +
-1.730692	k a N
-1.73886	k a e
-1.322331	k a h
-1.23564	k a i
-1.223979	k a k
-1.543998	k a m
-1.239781	k a n
-1.745631	k a o
-1.169654	k a p
-0.9163498	k a r
-1.378312	k a t
-1.074968	k a u
-1.546768	k a w
-0.6727871	m a +
-1.728795	m a N
-1.47373	m a e
-0.9741315	m a h
-1.124623	m a i
-1.071301	m a k
-1.481068	m a m
-1.086131	m a n
-1.593027	m a o
-1.708061	m a p
-0.8978442	m a r
-0.9171675	m a t
-1.293894	m a u
-0.2581085	n a +
-1.490568	n a N
-1.762467	n a e
-1.244745	n a h
-1.561868	n a i
-1.135346	n a k
-1.618979	n a m
-1.252415	n a n
-1.771549	n a o
-1.586964	n a p
-1.488607	n a r
-1.378437	n a t
-1.720464	n a u
-1.623158	n a w
-0.2962793	o a +
-1.16656	o a k
-0.9969108	o a r
-0.8459352	o a t
-0.5556937	p a +
-1.710254	p a N
-1.362277	p a e
-1.261189	p a h
-1.263635	p a i
-1.050173	p a k
-1.269433	p a n
-1.456884	p a o
-1.276515	p a p
-0.6530418	p a r
-1.204575	p a t
-1.680939	p a u
-0.4454432	r a +
-1.336756	r a N
-1.735169	r a e
-1.27132	r a h
-1.123924	r a i
-1.006414	r a k
-1.538656	r a m
-1.438889	r a n
-1.741534	r a o
-1.282623	r a p
-1.13381	r a r
-1.321352	r a t
-1.279832	r a u
-1.40136	r a w
-0.520286	t a +
-1.435829	t a N
-1.761897	t a a
-1.602573	t a e
-1.927819	t a f
-1.210075	t a h
-1.106045	t a i
-1.096325	t a k
-1.610869	t a m
-1.570747	t a n
-1.60811	t a o
-1.146771	t a p
-0.8560814	t a r
-1.413156	t a t
-1.261448	t a u
-0.1466278	u a +
-1.438968	u a e
-1.036538	u a k
-1.207172	u a r
-0.4745442	w a +
-1.495148	w a N
-1.34877	w a e
-1.044203	w a h
-1.046479	w a i
-1.180428	w a k
-1.316944	w a n
-1.512664	w a o
-1.009452	w a r
-1.203916	w a t
-1.46768	w a u
-1.243397	w a w
-1.125399	+ e N
-0.8379671	+ e h
-0.9252925	+ e k
-1.0737	+ e n
-0.8863617	+ e r
-1.097549	+ e t
-0.3943332	N e +
-0.5384326	N e r
-0.3683046	a e +
-1.293555	a e N
-0.7212411	a e a
-1.260406	a e h
-1.253629	a e n
-0.8866872	a e r
-0.6223778	f e +
-1.029045	f e a
-1.023081	f e k
-0.8941051	f e n
-1.120587	f e o
-0.8509238	f e r
-1.057088	f e t
-0.3466825	h e +
-1.406144	h e N
-1.10888	h e a
-1.241216	h e i
-1.333991	h e k
-1.274603	h e m
-1.350819	h e n
-1.45763	h e o
-0.9313194	h e r
-0.1963391	i e +
-0.2831373	k e +
-1.446569	k e N
-1.217573	k e a
-1.310541	k e h
-1.57783	k e i
-1.085593	k e k
-1.621707	k e m
-1.305576	k e n
-1.066189	k e r
-1.319117	k e t
-0.5236196	m e +
-1.188038	m e h
-0.923138	m e k
-1.083091	m e m
-1.038012	m e n
-0.749286	m e r
-1.200995	m e t
-0.2415404	n e +
-1.453256	n e N
-1.162545	n e h
-1.008649	n e i
-1.258753	n e k
-1.41333	n e n
-1.080155	n e t
-0.2817736	o e +
-0.6563376	o e a
-0.5790591	p e +
-1.07318	p e h
-1.194898	p e i
-1.160505	p e k
-0.8538418	p e n
-0.9442495	p e p
-0.8856269	p e r
-1.332762	p e t
-0.319545	r e +
-1.310547	r e N
-1.222792	r e a
-1.801889	r e f
-1.289839	r e h
-1.139292	r e i
-1.277576	r e k
-1.486004	r e m
-1.533725	r e n
-1.757904	r e p
-1.14738	r e r
-1.367373	r e t
-1.791935	r e w
-0.4656021	t e +
-1.419932	t e N
-1.223531	t e a
-1.237282	t e h
-1.398322	t e i
-1.037288	t e k
-0.9759623	t e n
-0.7949366	t e r
-1.390072	t e t
-0.2904539	u e +
-0.5323625	w e +
-1.251872	w e a
-1.019591	w e h
-1.006577	w e k
-1.120516	w e n
-1.332873	w e p
-0.8329357	w e r
-1.027482	w e t
-1.357928	w e w
-0.3161744	+ f a
-0.6318672	+ f e
-0.6235543	+ f i
-1.53616	+ f u
-0.5164155	a f a
-0.2763765	a f i
-0.3158054	e f a
-0.3950935	e f e
-0.3827522	i f a
-0.2951757	i f i
-0.5021155	+ h a
-0.86831	+ h e
-0.7836305	+ h i
-0.6390571	+ h o
-0.80828	+ h u
-0.4869573	a h a
-1.115552	a h e
-0.5533353	a h i
-1.181096	a h o
-0.5994837	a h u
-0.7297218	e h a
-0.5178019	e h e
-0.5357978	e h i
-0.6930941	e h u
-0.7193575	i h a
-1.021106	i h e
-0.2379136	i h i
-1.015009	i h o
-0.7964361	o h a
-0.7781007	o h e
-0.6084381	o h i
-0.6320146	o h o
-0.7143739	o h u
-0.5170932	u h a
-0.5181366	u h i
-0.5448867	u h u
-1.095889	+ i N
-1.048564	+ i h
-1.186313	+ i k
-0.6683911	+ i n
-0.9337691	+ i r
-1.17932	+ i t
-1.282903	+ i w
-0.1135598	N i +
-0.4587176	a i +
-1.590312	a i N
-0.8032598	a i a
-0.9239768	a i h
-1.126514	a i k
-0.918225	a i n
-1.59738	a i o
-1.369903	a i r
-1.51137	a i t
-0.2781756	e i +
-0.9594214	e i a
-1.140364	e i h
-0.978735	e i n
-1.128932	e i r
-0.5160953	f i +
-1.218086	f i f
-1.027694	f i o
-0.8704626	f i r
-0.7883759	f i t
-1.206865	f i u
-0.2186666	h i +
-1.689148	h i N
-1.198325	h i a
-1.61823	h i h
-1.22535	h i k
-1.157397	h i n
-1.536637	h i p
-1.468739	h i r
-1.374332	h i t
-1.720878	h i w
-0.1571768	i i a
-0.2327208	k i +
-1.669015	k i N
-1.409405	k i a
-1.593808	k i h
-1.275395	k i k
-1.688242	k i m
-1.264283	k i n
-1.676552	k i o
-1.139541	k i r
-1.271614	k i t
-1.702918	k i w
-0.3925433	m i +
-1.339994	m i N
-1.139333	m i h
-1.282274	m i k
-0.9369848	m i n
-0.8676219	m i r
-1.134589	m i t
-0.2401945	n i +
-1.1835	n i a
-1.023091	n i h
-1.219073	n i k
-1.20729	n i n
-1.215061	n i t
-0.2125387	o i +
-0.6117816	o i a
-0.3860293	p i +
-1.302487	p i a
-1.212565	p i h
-1.104642	p i k
-1.418827	p i o
-1.417333	p i p
-0.8799816	p i r
-0.9442634	p i t
-1.436271	p i u
-0.299098	r i +
-1.302011	r i N
-1.015795	r i a
-1.272749	r i h
-1.341773	r i k
-1.593994	r i m
-1.509278	r i n
-1.379024	r i p
-1.332606	r i r
-1.26926	r i t
-1.602249	r i u
-0.2917307	t i +
-1.167631	t i a
-1.760405	t i f
-1.508434	t i h
-1.091267	t i k
-1.454098	t i m
-1.24256	t i n
-1.564052	t i o
-1.447303	t i p
-1.312763	t i r
-1.18862	t i t
-0.3030736	u i +
-0.5433053	u i a
-1.002958	u i h
-0.3964133	w i +
-0.8380509	w i r
-0.6859854	w i t
-0.4032107	+ k a
-0.9609329	+ k e
-0.8515956	+ k i
-0.6163288	+ k o
-0.9483202	+ k u
-0.4356784	a k a
-0.7940098	a k e
-0.6312357	a k i
-0.9342027	a k o
-0.9127904	a k u
-0.5681334	e k a
-0.3532701	e k e
-0.8977991	e k i
-0.9805064	e k o
-1.262414	e k u
-0.5227399	i k a
-1.005652	i k e
-0.4126554	i k i
-0.7400373	i k o
-0.5649376	o k a
-0.6974989	o k e
-0.7807158	o k i
-0.5888866	o k o
-0.9866537	o k u
-0.67303	u k a
-0.6199368	u k e
-0.6611059	u k i
-0.5495059	u k u
-0.2951922	+ m a
-1.031036	+ m e
-0.8569412	+ m i
-0.7618934	+ m o
-1.056504	+ m u
-0.3344348	a m a
-0.9911156	a m e
-0.9644797	a m o
-0.5605122	a m u
-0.6550484	e m a
-0.5327162	e m e
-0.8402897	e m i
-0.6991652	e m o
-0.859056	e m u
-0.4697604	i m a
-0.5681064	i m i
-0.8090698	i m o
-0.6860398	i m u
-0.5180651	o m a
-0.8881947	o m e
-0.5309067	o m i
-0.6123635	o m o
-0.5180651	u m a
-0.6296262	u m e
-0.7229818	u m i
-0.6252758	u m u
-0.4265308	+ n a
-0.8062983	+ n e
-0.7781731	+ n i
-0.6995564	+ n o
-0.9899972	+ n u
-0.2391982	a n a
-0.9621252	a n e
-0.8285886	a n i
-1.116875	a n o
-1.050852	a n u
-0.6195844	e n a
-0.2815138	e n e
-0.939065	e n i
-1.080003	e n u
-0.3816859	i n a
-0.7234108	i n e
-0.5922096	i n i
-1.016981	i n o
-1.366638	i n u
-0.3655301	o n a
-0.8481298	o n e
-0.9605702	o n i
-0.6645363	o n o
-1.000821	o n u
-0.3744202	u n a
-0.9005296	u n e
-0.7238362	u n i
-0.6082001	u n u
-0.7643383	+ o h
-0.8777992	+ o k
-1.293728	+ o m
-1.098114	+ o n
-1.289246	+ o p
-0.7337404	+ o r
-1.097451	+ o t
-0.3602643	N o +
-1.061932	N o i
-0.9550013	N o r
-1.042148	N o t
-0.2558292	a o +
-1.248204	a o N
-1.054049	a o a
-1.211514	a o n
-0.8204125	a o r
-0.2973943	e o +
-0.6720414	e o i
-0.5421297	h o +
-1.311921	h o N
-1.071343	h o a
-1.356746	h o h
-1.281744	h o i
-1.210707	h o k
-1.158049	h o n
-1.189695	h o p
-0.8494923	h o r
-1.396075	h o t
-1.170516	h o u
-0.2526725	i o +
-0.9319623	i o k
-0.9036319	i o r
-0.4247378	k o +
-1.573658	k o a
-1.519687	k o e
-1.176081	k o h
-1.610828	k o i
-1.163338	k o k
-1.382298	k o m
-1.345747	k o n
-1.490797	k o p
-0.7763318	k o r
-1.193565	k o t
-1.46451	k o u
-0.5264163	m o +
-1.160642	m o a
-1.38451	m o e
-1.140582	m o h
-0.8763793	m o k
-1.199799	m o m
-1.164776	m o n
-0.9205784	m o r
-1.056767	m o t
-0.3297088	n o +
-0.8786753	n o h
-1.256197	n o i
-1.183051	n o k
-0.9800285	n o n
-0.6588077	p o +
-1.443849	p o N
-1.047182	p o a
-1.114655	p o h
-1.406802	p o i
-0.7578074	p o k
-1.382036	p o n
-1.431428	p o p
-0.8767293	p o r
-1.240736	p o t
-1.058911	p o u
-0.3755501	r o +
-1.141718	r o a
-1.19657	r o h
-1.227194	r o i
-1.117543	r o k
-1.444867	r o m
-1.542003	r o n
-1.594971	r o p
-1.039466	r o r
-1.214485	r o t
-1.310818	r o u
-0.5151369	t o +
-1.521791	t o N
-1.444031	t o a
-0.9327006	t o h
-1.479203	t o i
-0.9734178	t o k
-1.512247	t o m
-1.212031	t o n
-1.355839	t o p
-0.9511603	t o r
-1.314583	t o t
-1.224498	t o u
-0.4416288	+ p a
-0.8688511	+ p e
-0.899232	+ p i
-0.7265076	+ p o
-0.7235328	+ p u
-0.4912075	a p a
-1.031458	a p e
-0.7544689	a p i
-0.9531419	a p o
-0.5284078	a p u
-0.4302098	e p a
-0.6901609	e p e
-0.6458384	e p u
-0.5877377	i p a
-0.4538807	i p i
-0.8960444	i p o
-0.7329886	i p u
-0.4366091	o p a
-0.6525522	o p e
-0.7497596	o p i
-0.8758411	o p o
-0.7346627	u p a
-0.7359184	u p e
-0.8546517	u p o
-0.3942373	u p u
-0.4781272	+ r a
-0.6731948	+ r e
-0.767664	+ r i
-0.8199219	+ r o
-0.8763497	+ r u
-0.3453137	a r a
-0.8058829	a r e
-0.7100254	a r i
-0.9148632	a r o
-1.123081	a r u
-0.6282168	e r a
-0.341281	e r e
-0.9728452	e r i
-0.9310743	e r o
-1.071393	e r u
-0.6188536	i r a
-0.9038376	i r e
-0.345549	i r i
-0.7586286	i r o
-0.7952935	o r a
-0.6001589	o r e
-0.6804935	o r i
-0.5201695	o r o
-1.109182	o r u
-0.7161123	u r a
-0.7747352	u r e
-0.6633453	u r i
-0.405248	u r u
-0.3910674	+ t a
-0.9384447	+ t e
-0.7491919	+ t i
-0.7742296	+ t o
-0.8796484	+ t u
-0.3617316	a t a
-0.9697868	a t e
-0.6940184	a t i
-0.9631589	a t o
-0.8341905	a t u
-0.6403704	e t a
-0.5981757	e t e
-0.4457081	e t i
-0.9610245	e t u
-0.6832915	i t a
-1.304996	i t e
-0.2508665	i t i
-0.9595	i t o
-1.145549	i t u
-0.5536266	o t a
-0.9906263	o t e
-0.6311308	o t i
-0.6041369	o t o
-0.8701958	o t u
-0.5860127	u t a
-0.9236795	u t e
-0.855585	u t i
-0.37266	u t u
-1.14088	+ u a
-1.350731	+ u f
-1.131534	+ u h
-1.094382	+ u i
-0.893144	+ u k
-1.135139	+ u m
-1.102206	+ u n
-0.7969705	+ u r
-1.244943	+ u t
-0.3621557	N u +
-0.6588745	N u r
-0.2956976	a u +
-1.509742	a u N
-0.8151612	a u a
-1.308378	a u i
-1.429297	a u k
-1.205205	a u n
-1.251817	a u r
-1.206572	a u t
-0.05114957	e u +
-0.3696692	h u +
-1.372105	h u N
-0.9256196	h u a
-1.549298	h u e
-1.517925	h u h
-1.476047	h u i
-1.126512	h u k
-1.228686	h u n
-0.879428	h u r
-1.339901	h u t
-0.1443735	i u +
-0.6981913	i u a
-0.3149304	k u +
-1.221877	k u a
-1.463186	k u h
-1.082596	k u i
-1.398039	k u k
-1.309599	k u m
-1.43009	k u n
-1.193989	k u p
-1.045617	k u r
-1.285162	k u t
-0.2574453	m u +
-1.225899	m u i
-1.208385	m u k
-0.7745376	m u r
-1.234282	m u t
-0.2503333	n u +
-1.127121	n u a
-0.9082061	n u i
-1.011615	n u k
-1.207463	n u m
-0.2017931	o u +
-0.917107	o u a
-0.9163519	o u r
-0.530283	p u +
-1.556502	p u N
-0.8623133	p u a
-1.574035	p u e
-1.385158	p u h
-1.246335	p u i
-1.149019	p u k
-0.9771469	p u n
-1.388006	p u p
-0.8617889	p u r
-1.253142	p u t
-0.2748819	r u +
-1.534508	r u N
-1.099618	r u a
-1.363164	r u h
-1.330965	r u i
-0.9973389	r u k
-1.522315	r u m
-1.521946	r u p
-1.269999	r u r
-1.484723	r u t
-0.3636073	t u +
-1.530159	t u N
-0.9714241	t u a
-1.512221	t u h
-1.46365	t u i
-1.121921	t u k
-1.248855	t u m
-1.473775	t u n
-1.248641	t u p
-1.026851	t u r
-1.476626	t u t
-0.305304	+ w a
-0.4512289	+ w e
-1.018341	+ w i
-1.395456	+ w o
-0.2082896	a w a
-0.478934	a w e
-0.2959321	e w a
-0.3421201	e w e
-0.1933742	i w a
-0.5374688	i w i

\end\
